<?xml version="1.0"?>
<opencv_storage>
<cascade>
  <stageType>BOOST</stageType>
  <featureType>HAAR</featureType>
  <height>26</height>
  <width>22</width>
  <stageParams>
    <boostType>GAB</boostType>
    <minHitRate>9.9900001287460327e-01</minHitRate>
    <maxFalseAlarm>4.0000000596046448e-01</maxFalseAlarm>
    <weightTrimRate>9.4999998807907104e-01</weightTrimRate>
    <maxDepth>1</maxDepth>
    <maxWeakCount>100</maxWeakCount></stageParams>
  <featureParams>
    <maxCatCount>0</maxCatCount>
    <featSize>1</featSize>
    <mode>BASIC</mode></featureParams>
  <stageNum>15</stageNum>
  <stages>
    <!-- stage 0 -->
    <_>
      <maxWeakCount>3</maxWeakCount>
      <stageThreshold>-1.0006721019744873e+00</stageThreshold>
      <weakClassifiers>
        <_>
          <internalNodes>
            0 -1 54 2.3397663235664368e-01</internalNodes>
          <leafValues>
            -9.7936016321182251e-01 9.2580378055572510e-01</leafValues></_>
        <_>
          <internalNodes>
            0 -1 34 2.4155847728252411e-02</internalNodes>
          <leafValues>
            -8.6712086200714111e-01 9.1847270727157593e-01</leafValues></_>
        <_>
          <internalNodes>
            0 -1 83 4.9881596118211746e-02</internalNodes>
          <leafValues>
            -8.7949913740158081e-01 8.4580886363983154e-01</leafValues></_></weakClassifiers></_>
    <!-- stage 1 -->
    <_>
      <maxWeakCount>3</maxWeakCount>
      <stageThreshold>-8.4908914566040039e-01</stageThreshold>
      <weakClassifiers>
        <_>
          <internalNodes>
            0 -1 62 -8.1953853368759155e-02</internalNodes>
          <leafValues>
            8.3484721183776855e-01 -8.6199796199798584e-01</leafValues></_>
        <_>
          <internalNodes>
            0 -1 68 -1.3933369889855385e-02</internalNodes>
          <leafValues>
            8.1586867570877075e-01 -8.1914478540420532e-01</leafValues></_>
        <_>
          <internalNodes>
            0 -1 39 2.6410847902297974e-02</internalNodes>
          <leafValues>
            -7.5197482109069824e-01 8.3205354213714600e-01</leafValues></_></weakClassifiers></_>
    <!-- stage 2 -->
    <_>
      <maxWeakCount>5</maxWeakCount>
      <stageThreshold>-1.1486543416976929e+00</stageThreshold>
      <weakClassifiers>
        <_>
          <internalNodes>
            0 -1 53 -2.0002357661724091e-01</internalNodes>
          <leafValues>
            8.1170481443405151e-01 -7.8065800666809082e-01</leafValues></_>
        <_>
          <internalNodes>
            0 -1 33 2.5140874087810516e-02</internalNodes>
          <leafValues>
            -8.4237879514694214e-01 6.7721974849700928e-01</leafValues></_>
        <_>
          <internalNodes>
            0 -1 20 1.8082078546285629e-02</internalNodes>
          <leafValues>
            -9.3036741018295288e-01 5.6154912710189819e-01</leafValues></_>
        <_>
          <internalNodes>
            0 -1 88 -3.6316905170679092e-02</internalNodes>
          <leafValues>
            8.0623376369476318e-01 -6.2570375204086304e-01</leafValues></_>
        <_>
          <internalNodes>
            0 -1 36 5.9979659272357821e-04</internalNodes>
          <leafValues>
            -8.6008858680725098e-01 5.3853714466094971e-01</leafValues></_></weakClassifiers></_>
    <!-- stage 3 -->
    <_>
      <maxWeakCount>5</maxWeakCount>
      <stageThreshold>-1.2983554601669312e+00</stageThreshold>
      <weakClassifiers>
        <_>
          <internalNodes>
            0 -1 72 -1.5069996938109398e-02</internalNodes>
          <leafValues>
            7.8849405050277710e-01 -7.5800001621246338e-01</leafValues></_>
        <_>
          <internalNodes>
            0 -1 1 2.4601258337497711e-02</internalNodes>
          <leafValues>
            -9.5097607374191284e-01 5.5233556032180786e-01</leafValues></_>
        <_>
          <internalNodes>
            0 -1 59 1.0780101269483566e-01</internalNodes>
          <leafValues>
            -8.3546197414398193e-01 5.4392808675765991e-01</leafValues></_>
        <_>
          <internalNodes>
            0 -1 10 -1.9952099770307541e-02</internalNodes>
          <leafValues>
            6.8600565195083618e-01 -7.4874180555343628e-01</leafValues></_>
        <_>
          <internalNodes>
            0 -1 7 -4.3238131329417229e-03</internalNodes>
          <leafValues>
            6.1543434858322144e-01 -6.1752730607986450e-01</leafValues></_></weakClassifiers></_>
    <!-- stage 4 -->
    <_>
      <maxWeakCount>5</maxWeakCount>
      <stageThreshold>-1.2452770471572876e+00</stageThreshold>
      <weakClassifiers>
        <_>
          <internalNodes>
            0 -1 71 -1.5037021040916443e-01</internalNodes>
          <leafValues>
            6.8174964189529419e-01 -8.5280376672744751e-01</leafValues></_>
        <_>
          <internalNodes>
            0 -1 14 1.5372465364634991e-02</internalNodes>
          <leafValues>
            -8.2424777746200562e-01 5.9705573320388794e-01</leafValues></_>
        <_>
          <internalNodes>
            0 -1 27 -1.9849183445330709e-05</internalNodes>
          <leafValues>
            4.8996064066886902e-01 -7.8298759460449219e-01</leafValues></_>
        <_>
          <internalNodes>
            0 -1 99 1.1351404711604118e-02</internalNodes>
          <leafValues>
            -8.0908983945846558e-01 4.5319738984107971e-01</leafValues></_>
        <_>
          <internalNodes>
            0 -1 50 1.4326630160212517e-02</internalNodes>
          <leafValues>
            -5.0293076038360596e-01 7.6156461238861084e-01</leafValues></_></weakClassifiers></_>
    <!-- stage 5 -->
    <_>
      <maxWeakCount>6</maxWeakCount>
      <stageThreshold>-9.5770370960235596e-01</stageThreshold>
      <weakClassifiers>
        <_>
          <internalNodes>
            0 -1 49 2.6514780521392822e-01</internalNodes>
          <leafValues>
            -8.2375478744506836e-01 5.8541816473007202e-01</leafValues></_>
        <_>
          <internalNodes>
            0 -1 16 -1.5109547413885593e-02</internalNodes>
          <leafValues>
            6.3665127754211426e-01 -7.3685395717620850e-01</leafValues></_>
        <_>
          <internalNodes>
            0 -1 30 4.0947716683149338e-02</internalNodes>
          <leafValues>
            -9.0842425823211670e-01 4.1943728923797607e-01</leafValues></_>
        <_>
          <internalNodes>
            0 -1 85 -3.9331726729869843e-02</internalNodes>
          <leafValues>
            5.7303905487060547e-01 -6.6302353143692017e-01</leafValues></_>
        <_>
          <internalNodes>
            0 -1 46 1.7971794586628675e-03</internalNodes>
          <leafValues>
            -7.5298047065734863e-01 4.8611167073249817e-01</leafValues></_>
        <_>
          <internalNodes>
            0 -1 3 5.3129643201828003e-02</internalNodes>
          <leafValues>
            -8.5940325260162354e-01 3.6340916156768799e-01</leafValues></_></weakClassifiers></_>
    <!-- stage 6 -->
    <_>
      <maxWeakCount>7</maxWeakCount>
      <stageThreshold>-1.6536326408386230e+00</stageThreshold>
      <weakClassifiers>
        <_>
          <internalNodes>
            0 -1 22 2.7990472316741943e-01</internalNodes>
          <leafValues>
            -8.2731956243515015e-01 5.8036983013153076e-01</leafValues></_>
        <_>
          <internalNodes>
            0 -1 103 3.4079363103955984e-03</internalNodes>
          <leafValues>
            -4.9580219388008118e-01 8.4574043750762939e-01</leafValues></_>
        <_>
          <internalNodes>
            0 -1 44 -8.9359644334763288e-04</internalNodes>
          <leafValues>
            5.8014994859695435e-01 -6.6048347949981689e-01</leafValues></_>
        <_>
          <internalNodes>
            0 -1 105 -1.3772649690508842e-02</internalNodes>
          <leafValues>
            4.1319674253463745e-01 -7.5163865089416504e-01</leafValues></_>
        <_>
          <internalNodes>
            0 -1 75 -1.6879459843039513e-02</internalNodes>
          <leafValues>
            5.2731728553771973e-01 -6.0720515251159668e-01</leafValues></_>
        <_>
          <internalNodes>
            0 -1 56 1.8389064818620682e-02</internalNodes>
          <leafValues>
            -9.5759409666061401e-01 2.9488465189933777e-01</leafValues></_>
        <_>
          <internalNodes>
            0 -1 38 1.0136251803487539e-03</internalNodes>
          <leafValues>
            -8.2863837480545044e-01 2.2909645736217499e-01</leafValues></_></weakClassifiers></_>
    <!-- stage 7 -->
    <_>
      <maxWeakCount>8</maxWeakCount>
      <stageThreshold>-1.5027124881744385e+00</stageThreshold>
      <weakClassifiers>
        <_>
          <internalNodes>
            0 -1 89 -1.0305512696504593e-02</internalNodes>
          <leafValues>
            6.6011953353881836e-01 -5.9248268604278564e-01</leafValues></_>
        <_>
          <internalNodes>
            0 -1 6 -2.6998311281204224e-02</internalNodes>
          <leafValues>
            4.3363487720489502e-01 -8.0711305141448975e-01</leafValues></_>
        <_>
          <internalNodes>
            0 -1 60 -2.1034720540046692e-01</internalNodes>
          <leafValues>
            3.2097911834716797e-01 -9.1060471534729004e-01</leafValues></_>
        <_>
          <internalNodes>
            0 -1 41 8.6592137813568115e-03</internalNodes>
          <leafValues>
            -6.6381901502609253e-01 4.9109366536140442e-01</leafValues></_>
        <_>
          <internalNodes>
            0 -1 2 4.4569365680217743e-02</internalNodes>
          <leafValues>
            -9.3693172931671143e-01 2.8867435455322266e-01</leafValues></_>
        <_>
          <internalNodes>
            0 -1 92 -4.6942057088017464e-03</internalNodes>
          <leafValues>
            5.3562778234481812e-01 -6.0977917909622192e-01</leafValues></_>
        <_>
          <internalNodes>
            0 -1 23 3.5475944168865681e-03</internalNodes>
          <leafValues>
            -9.0668022632598877e-01 2.5986820459365845e-01</leafValues></_>
        <_>
          <internalNodes>
            0 -1 15 2.4164868518710136e-03</internalNodes>
          <leafValues>
            3.0095973610877991e-01 -7.9983037710189819e-01</leafValues></_></weakClassifiers></_>
    <!-- stage 8 -->
    <_>
      <maxWeakCount>9</maxWeakCount>
      <stageThreshold>-1.4913728237152100e+00</stageThreshold>
      <weakClassifiers>
        <_>
          <internalNodes>
            0 -1 32 6.7101210355758667e-02</internalNodes>
          <leafValues>
            -6.7849224805831909e-01 6.1406248807907104e-01</leafValues></_>
        <_>
          <internalNodes>
            0 -1 98 -1.8388951430097222e-03</internalNodes>
          <leafValues>
            8.2733839750289917e-01 -4.1017410159111023e-01</leafValues></_>
        <_>
          <internalNodes>
            0 -1 4 3.0521841254085302e-03</internalNodes>
          <leafValues>
            -8.3535432815551758e-01 4.1096931695938110e-01</leafValues></_>
        <_>
          <internalNodes>
            0 -1 87 -3.7136806640774012e-03</internalNodes>
          <leafValues>
            6.1676275730133057e-01 -4.6962183713912964e-01</leafValues></_>
        <_>
          <internalNodes>
            0 -1 45 3.4777087421389297e-05</internalNodes>
          <leafValues>
            -7.4613928794860840e-01 3.2856750488281250e-01</leafValues></_>
        <_>
          <internalNodes>
            0 -1 74 -3.5625711083412170e-02</internalNodes>
          <leafValues>
            5.6394159793853760e-01 -4.6613973379135132e-01</leafValues></_>
        <_>
          <internalNodes>
            0 -1 31 -2.5145503878593445e-01</internalNodes>
          <leafValues>
            3.6996957659721375e-01 -7.9763203859329224e-01</leafValues></_>
        <_>
          <internalNodes>
            0 -1 40 9.1943209990859032e-03</internalNodes>
          <leafValues>
            -5.7872122526168823e-01 3.9362210035324097e-01</leafValues></_>
        <_>
          <internalNodes>
            0 -1 69 2.3914201301522553e-04</internalNodes>
          <leafValues>
            -6.8770956993103027e-01 3.5746729373931885e-01</leafValues></_></weakClassifiers></_>
    <!-- stage 9 -->
    <_>
      <maxWeakCount>8</maxWeakCount>
      <stageThreshold>-1.6782604455947876e+00</stageThreshold>
      <weakClassifiers>
        <_>
          <internalNodes>
            0 -1 82 -6.5317511558532715e-02</internalNodes>
          <leafValues>
            7.0686453580856323e-01 -5.3260868787765503e-01</leafValues></_>
        <_>
          <internalNodes>
            0 -1 52 -3.0833219643682241e-03</internalNodes>
          <leafValues>
            6.9575124979019165e-01 -4.4868078827857971e-01</leafValues></_>
        <_>
          <internalNodes>
            0 -1 95 8.6569524137303233e-04</internalNodes>
          <leafValues>
            -8.7720793485641479e-01 3.6612984538078308e-01</leafValues></_>
        <_>
          <internalNodes>
            0 -1 61 -2.7423046529293060e-02</internalNodes>
          <leafValues>
            3.9654636383056641e-01 -7.1805828809738159e-01</leafValues></_>
        <_>
          <internalNodes>
            0 -1 43 1.2694554403424263e-02</internalNodes>
          <leafValues>
            -7.1359819173812866e-01 3.0323728919029236e-01</leafValues></_>
        <_>
          <internalNodes>
            0 -1 100 -2.1989657543599606e-03</internalNodes>
          <leafValues>
            7.5160008668899536e-01 -3.6658379435539246e-01</leafValues></_>
        <_>
          <internalNodes>
            0 -1 35 -2.4719911380088888e-05</internalNodes>
          <leafValues>
            3.3052548766136169e-01 -7.4327254295349121e-01</leafValues></_>
        <_>
          <internalNodes>
            0 -1 66 -8.3209195872768760e-04</internalNodes>
          <leafValues>
            -9.0460121631622314e-01 2.3893873393535614e-01</leafValues></_></weakClassifiers></_>
    <!-- stage 10 -->
    <_>
      <maxWeakCount>11</maxWeakCount>
      <stageThreshold>-1.5133062601089478e+00</stageThreshold>
      <weakClassifiers>
        <_>
          <internalNodes>
            0 -1 73 -1.7255896702408791e-02</internalNodes>
          <leafValues>
            5.8828318119049072e-01 -5.7607555389404297e-01</leafValues></_>
        <_>
          <internalNodes>
            0 -1 97 3.5444628447294235e-03</internalNodes>
          <leafValues>
            -3.5802385210990906e-01 7.8444421291351318e-01</leafValues></_>
        <_>
          <internalNodes>
            0 -1 51 3.9594732224941254e-02</internalNodes>
          <leafValues>
            -7.3676764965057373e-01 3.8097104430198669e-01</leafValues></_>
        <_>
          <internalNodes>
            0 -1 76 -2.4947455152869225e-02</internalNodes>
          <leafValues>
            -8.4703880548477173e-01 2.5596803426742554e-01</leafValues></_>
        <_>
          <internalNodes>
            0 -1 18 -1.3985291589051485e-03</internalNodes>
          <leafValues>
            3.4689077734947205e-01 -6.1031043529510498e-01</leafValues></_>
        <_>
          <internalNodes>
            0 -1 70 -1.6462311148643494e-01</internalNodes>
          <leafValues>
            2.9261112213134766e-01 -7.6894462108612061e-01</leafValues></_>
        <_>
          <internalNodes>
            0 -1 58 -6.0603730380535126e-03</internalNodes>
          <leafValues>
            6.7746758460998535e-01 -3.6099168658256531e-01</leafValues></_>
        <_>
          <internalNodes>
            0 -1 48 -7.7356225810945034e-03</internalNodes>
          <leafValues>
            6.6721367835998535e-01 -3.1349086761474609e-01</leafValues></_>
        <_>
          <internalNodes>
            0 -1 91 4.1004961531143636e-05</internalNodes>
          <leafValues>
            -6.1200314760208130e-01 3.7093955278396606e-01</leafValues></_>
        <_>
          <internalNodes>
            0 -1 65 1.1548607144504786e-03</internalNodes>
          <leafValues>
            2.7555677294731140e-01 -8.3148503303527832e-01</leafValues></_>
        <_>
          <internalNodes>
            0 -1 37 7.5528770685195923e-04</internalNodes>
          <leafValues>
            -7.9203349351882935e-01 2.4727825820446014e-01</leafValues></_></weakClassifiers></_>
    <!-- stage 11 -->
    <_>
      <maxWeakCount>8</maxWeakCount>
      <stageThreshold>-1.7755110263824463e+00</stageThreshold>
      <weakClassifiers>
        <_>
          <internalNodes>
            0 -1 102 2.3135514929890633e-03</internalNodes>
          <leafValues>
            -3.8700148463249207e-01 8.4299516677856445e-01</leafValues></_>
        <_>
          <internalNodes>
            0 -1 93 -1.9707155879586935e-03</internalNodes>
          <leafValues>
            4.6414020657539368e-01 -6.3027942180633545e-01</leafValues></_>
        <_>
          <internalNodes>
            0 -1 24 -1.1956417933106422e-02</internalNodes>
          <leafValues>
            3.7503173947334290e-01 -6.2518054246902466e-01</leafValues></_>
        <_>
          <internalNodes>
            0 -1 13 5.9082932770252228e-02</internalNodes>
          <leafValues>
            -8.3946758508682251e-01 2.6114511489868164e-01</leafValues></_>
        <_>
          <internalNodes>
            0 -1 5 -7.6543861068785191e-03</internalNodes>
          <leafValues>
            -8.4447878599166870e-01 2.6853743195533752e-01</leafValues></_>
        <_>
          <internalNodes>
            0 -1 55 -3.7163848901400343e-05</internalNodes>
          <leafValues>
            5.2858293056488037e-01 -4.6411666274070740e-01</leafValues></_>
        <_>
          <internalNodes>
            0 -1 17 2.6214390993118286e-02</internalNodes>
          <leafValues>
            -7.8189599514007568e-01 2.3178179562091827e-01</leafValues></_>
        <_>
          <internalNodes>
            0 -1 78 8.4499083459377289e-03</internalNodes>
          <leafValues>
            -5.5978119373321533e-01 4.1470095515251160e-01</leafValues></_></weakClassifiers></_>
    <!-- stage 12 -->
    <_>
      <maxWeakCount>10</maxWeakCount>
      <stageThreshold>-1.1831628084182739e+00</stageThreshold>
      <weakClassifiers>
        <_>
          <internalNodes>
            0 -1 106 -1.1670622974634171e-02</internalNodes>
          <leafValues>
            4.8168250918388367e-01 -7.5706213712692261e-01</leafValues></_>
        <_>
          <internalNodes>
            0 -1 77 5.3476281464099884e-03</internalNodes>
          <leafValues>
            -4.4691172242164612e-01 6.7864668369293213e-01</leafValues></_>
        <_>
          <internalNodes>
            0 -1 12 6.2232939526438713e-03</internalNodes>
          <leafValues>
            -8.8413208723068237e-01 3.0012309551239014e-01</leafValues></_>
        <_>
          <internalNodes>
            0 -1 63 9.4307935796678066e-04</internalNodes>
          <leafValues>
            2.6418173313140869e-01 -8.5809457302093506e-01</leafValues></_>
        <_>
          <internalNodes>
            0 -1 96 1.6403668560087681e-03</internalNodes>
          <leafValues>
            -7.4401134252548218e-01 2.6400667428970337e-01</leafValues></_>
        <_>
          <internalNodes>
            0 -1 26 -3.2559331884840503e-05</internalNodes>
          <leafValues>
            3.6184322834014893e-01 -6.2384289503097534e-01</leafValues></_>
        <_>
          <internalNodes>
            0 -1 81 -1.2527292966842651e-01</internalNodes>
          <leafValues>
            3.6366310715675354e-01 -6.4133000373840332e-01</leafValues></_>
        <_>
          <internalNodes>
            0 -1 57 2.1288697607815266e-03</internalNodes>
          <leafValues>
            -7.7077299356460571e-01 2.3836819827556610e-01</leafValues></_>
        <_>
          <internalNodes>
            0 -1 9 -3.8425861857831478e-03</internalNodes>
          <leafValues>
            2.7303773164749146e-01 -7.8290337324142456e-01</leafValues></_>
        <_>
          <internalNodes>
            0 -1 8 1.9827879965305328e-02</internalNodes>
          <leafValues>
            -9.0611892938613892e-01 1.2552857398986816e-01</leafValues></_></weakClassifiers></_>
    <!-- stage 13 -->
    <_>
      <maxWeakCount>9</maxWeakCount>
      <stageThreshold>-9.2849767208099365e-01</stageThreshold>
      <weakClassifiers>
        <_>
          <internalNodes>
            0 -1 104 -4.2533623054623604e-03</internalNodes>
          <leafValues>
            8.0023503303527832e-01 -3.8091659545898438e-01</leafValues></_>
        <_>
          <internalNodes>
            0 -1 80 -2.2816045675426722e-03</internalNodes>
          <leafValues>
            5.6965410709381104e-01 -4.7516891360282898e-01</leafValues></_>
        <_>
          <internalNodes>
            0 -1 11 1.1859703809022903e-03</internalNodes>
          <leafValues>
            -7.6669031381607056e-01 3.3644542098045349e-01</leafValues></_>
        <_>
          <internalNodes>
            0 -1 21 3.3255321905016899e-03</internalNodes>
          <leafValues>
            2.6869174838066101e-01 -8.1274735927581787e-01</leafValues></_>
        <_>
          <internalNodes>
            0 -1 86 -9.3194901943206787e-02</internalNodes>
          <leafValues>
            2.6814937591552734e-01 -6.9725328683853149e-01</leafValues></_>
        <_>
          <internalNodes>
            0 -1 64 5.7246303185820580e-04</internalNodes>
          <leafValues>
            2.0840665698051453e-01 -8.9517873525619507e-01</leafValues></_>
        <_>
          <internalNodes>
            0 -1 25 7.1683549322187901e-04</internalNodes>
          <leafValues>
            -7.5803828239440918e-01 2.8856959939002991e-01</leafValues></_>
        <_>
          <internalNodes>
            0 -1 79 -1.6263045836240053e-03</internalNodes>
          <leafValues>
            4.2348715662956238e-01 -4.9269208312034607e-01</leafValues></_>
        <_>
          <internalNodes>
            0 -1 94 -1.0567096993327141e-02</internalNodes>
          <leafValues>
            -9.1336679458618164e-01 2.6418077945709229e-01</leafValues></_></weakClassifiers></_>
    <!-- stage 14 -->
    <_>
      <maxWeakCount>10</maxWeakCount>
      <stageThreshold>-1.5507681369781494e+00</stageThreshold>
      <weakClassifiers>
        <_>
          <internalNodes>
            0 -1 101 2.8254569042474031e-03</internalNodes>
          <leafValues>
            -3.8785046339035034e-01 7.4832963943481445e-01</leafValues></_>
        <_>
          <internalNodes>
            0 -1 42 1.9571924209594727e-01</internalNodes>
          <leafValues>
            -3.8424873352050781e-01 6.0962104797363281e-01</leafValues></_>
        <_>
          <internalNodes>
            0 -1 29 -9.9415052682161331e-03</internalNodes>
          <leafValues>
            4.4898548722267151e-01 -6.2799799442291260e-01</leafValues></_>
        <_>
          <internalNodes>
            0 -1 47 4.3459194898605347e-01</internalNodes>
          <leafValues>
            -4.4553226232528687e-01 5.5159991979598999e-01</leafValues></_>
        <_>
          <internalNodes>
            0 -1 19 -2.0020636729896069e-03</internalNodes>
          <leafValues>
            3.8909286260604858e-01 -5.9341549873352051e-01</leafValues></_>
        <_>
          <internalNodes>
            0 -1 0 9.7385176923125982e-04</internalNodes>
          <leafValues>
            2.5147745013237000e-01 -9.2718297243118286e-01</leafValues></_>
        <_>
          <internalNodes>
            0 -1 90 -1.3210373930633068e-02</internalNodes>
          <leafValues>
            -9.1572135686874390e-01 1.8441934883594513e-01</leafValues></_>
        <_>
          <internalNodes>
            0 -1 84 -3.7749737501144409e-02</internalNodes>
          <leafValues>
            6.7311245203018188e-01 -3.4493932127952576e-01</leafValues></_>
        <_>
          <internalNodes>
            0 -1 28 1.1080314218997955e-01</internalNodes>
          <leafValues>
            -8.2639318704605103e-01 2.7184635400772095e-01</leafValues></_>
        <_>
          <internalNodes>
            0 -1 67 3.6391227040439844e-03</internalNodes>
          <leafValues>
            -3.8706406950950623e-01 5.2547293901443481e-01</leafValues></_></weakClassifiers></_></stages>
  <features>
    <_>
      <rects>
        <_>
          0 0 3 2 -1.</_>
        <_>
          0 1 3 1 2.</_></rects>
      <tilted>0</tilted></_>
    <_>
      <rects>
        <_>
          0 0 9 8 -1.</_>
        <_>
          0 4 9 4 2.</_></rects>
      <tilted>0</tilted></_>
    <_>
      <rects>
        <_>
          0 0 11 10 -1.</_>
        <_>
          0 5 11 5 2.</_></rects>
      <tilted>0</tilted></_>
    <_>
      <rects>
        <_>
          0 1 10 14 -1.</_>
        <_>
          5 1 5 14 2.</_></rects>
      <tilted>0</tilted></_>
    <_>
      <rects>
        <_>
          0 1 7 4 -1.</_>
        <_>
          0 3 7 2 2.</_></rects>
      <tilted>0</tilted></_>
    <_>
      <rects>
        <_>
          0 1 9 15 -1.</_>
        <_>
          0 6 9 5 3.</_></rects>
      <tilted>0</tilted></_>
    <_>
      <rects>
        <_>
          0 1 18 6 -1.</_>
        <_>
          0 3 18 2 3.</_></rects>
      <tilted>0</tilted></_>
    <_>
      <rects>
        <_>
          0 2 14 2 -1.</_>
        <_>
          0 2 7 1 2.</_>
        <_>
          7 3 7 1 2.</_></rects>
      <tilted>0</tilted></_>
    <_>
      <rects>
        <_>
          0 3 14 8 -1.</_>
        <_>
          0 7 14 4 2.</_></rects>
      <tilted>0</tilted></_>
    <_>
      <rects>
        <_>
          0 5 8 9 -1.</_>
        <_>
          0 8 8 3 3.</_></rects>
      <tilted>0</tilted></_>
    <_>
      <rects>
        <_>
          0 9 9 3 -1.</_>
        <_>
          3 9 3 3 3.</_></rects>
      <tilted>0</tilted></_>
    <_>
      <rects>
        <_>
          0 9 9 2 -1.</_>
        <_>
          0 10 9 1 2.</_></rects>
      <tilted>0</tilted></_>
    <_>
      <rects>
        <_>
          0 9 19 6 -1.</_>
        <_>
          0 11 19 2 3.</_></rects>
      <tilted>0</tilted></_>
    <_>
      <rects>
        <_>
          0 9 19 9 -1.</_>
        <_>
          0 12 19 3 3.</_></rects>
      <tilted>0</tilted></_>
    <_>
      <rects>
        <_>
          0 10 12 1 -1.</_>
        <_>
          6 10 6 1 2.</_></rects>
      <tilted>0</tilted></_>
    <_>
      <rects>
        <_>
          0 11 10 3 -1.</_>
        <_>
          0 12 10 1 3.</_></rects>
      <tilted>0</tilted></_>
    <_>
      <rects>
        <_>
          0 12 6 9 -1.</_>
        <_>
          2 12 2 9 3.</_></rects>
      <tilted>0</tilted></_>
    <_>
      <rects>
        <_>
          0 12 12 2 -1.</_>
        <_>
          6 12 6 2 2.</_></rects>
      <tilted>0</tilted></_>
    <_>
      <rects>
        <_>
          0 17 4 2 -1.</_>
        <_>
          2 17 2 2 2.</_></rects>
      <tilted>0</tilted></_>
    <_>
      <rects>
        <_>
          0 17 4 3 -1.</_>
        <_>
          2 17 2 3 2.</_></rects>
      <tilted>0</tilted></_>
    <_>
      <rects>
        <_>
          1 3 14 4 -1.</_>
        <_>
          1 5 14 2 2.</_></rects>
      <tilted>0</tilted></_>
    <_>
      <rects>
        <_>
          1 4 4 10 -1.</_>
        <_>
          1 9 4 5 2.</_></rects>
      <tilted>0</tilted></_>
    <_>
      <rects>
        <_>
          1 4 16 18 -1.</_>
        <_>
          1 10 16 6 3.</_></rects>
      <tilted>0</tilted></_>
    <_>
      <rects>
        <_>
          1 9 8 4 -1.</_>
        <_>
          1 11 8 2 2.</_></rects>
      <tilted>0</tilted></_>
    <_>
      <rects>
        <_>
          1 10 6 4 -1.</_>
        <_>
          3 10 2 4 3.</_></rects>
      <tilted>0</tilted></_>
    <_>
      <rects>
        <_>
          1 11 11 2 -1.</_>
        <_>
          1 12 11 1 2.</_></rects>
      <tilted>0</tilted></_>
    <_>
      <rects>
        <_>
          1 15 2 1 -1.</_>
        <_>
          2 15 1 1 2.</_></rects>
      <tilted>0</tilted></_>
    <_>
      <rects>
        <_>
          1 16 2 1 -1.</_>
        <_>
          2 16 1 1 2.</_></rects>
      <tilted>0</tilted></_>
    <_>
      <rects>
        <_>
          2 0 15 12 -1.</_>
        <_>
          2 6 15 6 2.</_></rects>
      <tilted>0</tilted></_>
    <_>
      <rects>
        <_>
          2 1 12 4 -1.</_>
        <_>
          2 1 6 2 2.</_>
        <_>
          8 3 6 2 2.</_></rects>
      <tilted>0</tilted></_>
    <_>
      <rects>
        <_>
          2 2 14 6 -1.</_>
        <_>
          2 5 14 3 2.</_></rects>
      <tilted>0</tilted></_>
    <_>
      <rects>
        <_>
          2 6 19 20 -1.</_>
        <_>
          2 16 19 10 2.</_></rects>
      <tilted>0</tilted></_>
    <_>
      <rects>
        <_>
          2 9 8 7 -1.</_>
        <_>
          6 9 4 7 2.</_></rects>
      <tilted>0</tilted></_>
    <_>
      <rects>
        <_>
          2 10 6 5 -1.</_>
        <_>
          5 10 3 5 2.</_></rects>
      <tilted>0</tilted></_>
    <_>
      <rects>
        <_>
          2 10 8 3 -1.</_>
        <_>
          6 10 4 3 2.</_></rects>
      <tilted>0</tilted></_>
    <_>
      <rects>
        <_>
          2 11 10 2 -1.</_>
        <_>
          2 11 5 1 2.</_>
        <_>
          7 12 5 1 2.</_></rects>
      <tilted>0</tilted></_>
    <_>
      <rects>
        <_>
          2 11 6 2 -1.</_>
        <_>
          2 12 6 1 2.</_></rects>
      <tilted>0</tilted></_>
    <_>
      <rects>
        <_>
          3 0 3 4 -1.</_>
        <_>
          3 2 3 2 2.</_></rects>
      <tilted>0</tilted></_>
    <_>
      <rects>
        <_>
          3 0 4 4 -1.</_>
        <_>
          3 2 4 2 2.</_></rects>
      <tilted>0</tilted></_>
    <_>
      <rects>
        <_>
          3 4 6 10 -1.</_>
        <_>
          3 4 3 5 2.</_>
        <_>
          6 9 3 5 2.</_></rects>
      <tilted>0</tilted></_>
    <_>
      <rects>
        <_>
          3 4 5 6 -1.</_>
        <_>
          3 6 5 2 3.</_></rects>
      <tilted>0</tilted></_>
    <_>
      <rects>
        <_>
          3 7 4 6 -1.</_>
        <_>
          3 7 2 3 2.</_>
        <_>
          5 10 2 3 2.</_></rects>
      <tilted>0</tilted></_>
    <_>
      <rects>
        <_>
          3 10 18 8 -1.</_>
        <_>
          9 10 6 8 3.</_></rects>
      <tilted>0</tilted></_>
    <_>
      <rects>
        <_>
          3 11 4 5 -1.</_>
        <_>
          5 11 2 5 2.</_></rects>
      <tilted>0</tilted></_>
    <_>
      <rects>
        <_>
          4 10 6 2 -1.</_>
        <_>
          4 10 3 1 2.</_>
        <_>
          7 11 3 1 2.</_></rects>
      <tilted>0</tilted></_>
    <_>
      <rects>
        <_>
          4 12 2 2 -1.</_>
        <_>
          4 13 2 1 2.</_></rects>
      <tilted>0</tilted></_>
    <_>
      <rects>
        <_>
          5 0 14 2 -1.</_>
        <_>
          5 1 14 1 2.</_></rects>
      <tilted>0</tilted></_>
    <_>
      <rects>
        <_>
          5 2 11 21 -1.</_>
        <_>
          5 9 11 7 3.</_></rects>
      <tilted>0</tilted></_>
    <_>
      <rects>
        <_>
          5 4 8 3 -1.</_>
        <_>
          5 5 8 1 3.</_></rects>
      <tilted>0</tilted></_>
    <_>
      <rects>
        <_>
          5 4 11 18 -1.</_>
        <_>
          5 10 11 6 3.</_></rects>
      <tilted>0</tilted></_>
    <_>
      <rects>
        <_>
          5 5 11 3 -1.</_>
        <_>
          5 6 11 1 3.</_></rects>
      <tilted>0</tilted></_>
    <_>
      <rects>
        <_>
          5 7 12 6 -1.</_>
        <_>
          5 10 12 3 2.</_></rects>
      <tilted>0</tilted></_>
    <_>
      <rects>
        <_>
          5 9 2 6 -1.</_>
        <_>
          5 9 1 3 2.</_>
        <_>
          6 12 1 3 2.</_></rects>
      <tilted>0</tilted></_>
    <_>
      <rects>
        <_>
          5 11 12 12 -1.</_>
        <_>
          5 17 12 6 2.</_></rects>
      <tilted>0</tilted></_>
    <_>
      <rects>
        <_>
          6 2 10 21 -1.</_>
        <_>
          6 9 10 7 3.</_></rects>
      <tilted>0</tilted></_>
    <_>
      <rects>
        <_>
          6 3 1 2 -1.</_>
        <_>
          6 4 1 1 2.</_></rects>
      <tilted>0</tilted></_>
    <_>
      <rects>
        <_>
          6 6 6 8 -1.</_>
        <_>
          6 10 6 4 2.</_></rects>
      <tilted>0</tilted></_>
    <_>
      <rects>
        <_>
          7 3 1 6 -1.</_>
        <_>
          7 6 1 3 2.</_></rects>
      <tilted>0</tilted></_>
    <_>
      <rects>
        <_>
          7 6 5 3 -1.</_>
        <_>
          7 7 5 1 3.</_></rects>
      <tilted>0</tilted></_>
    <_>
      <rects>
        <_>
          7 8 11 12 -1.</_>
        <_>
          7 12 11 4 3.</_></rects>
      <tilted>0</tilted></_>
    <_>
      <rects>
        <_>
          7 8 12 18 -1.</_>
        <_>
          7 17 12 9 2.</_></rects>
      <tilted>0</tilted></_>
    <_>
      <rects>
        <_>
          8 1 9 6 -1.</_>
        <_>
          8 3 9 2 3.</_></rects>
      <tilted>0</tilted></_>
    <_>
      <rects>
        <_>
          8 3 14 12 -1.</_>
        <_>
          8 3 7 6 2.</_>
        <_>
          15 9 7 6 2.</_></rects>
      <tilted>0</tilted></_>
    <_>
      <rects>
        <_>
          8 10 2 3 -1.</_>
        <_>
          8 11 2 1 3.</_></rects>
      <tilted>0</tilted></_>
    <_>
      <rects>
        <_>
          8 11 3 2 -1.</_>
        <_>
          8 12 3 1 2.</_></rects>
      <tilted>0</tilted></_>
    <_>
      <rects>
        <_>
          9 11 3 3 -1.</_>
        <_>
          9 12 3 1 3.</_></rects>
      <tilted>0</tilted></_>
    <_>
      <rects>
        <_>
          9 11 6 3 -1.</_>
        <_>
          9 12 6 1 3.</_></rects>
      <tilted>0</tilted></_>
    <_>
      <rects>
        <_>
          10 0 3 3 -1.</_>
        <_>
          10 1 3 1 3.</_></rects>
      <tilted>0</tilted></_>
    <_>
      <rects>
        <_>
          10 1 4 6 -1.</_>
        <_>
          10 3 4 2 3.</_></rects>
      <tilted>0</tilted></_>
    <_>
      <rects>
        <_>
          10 7 2 10 -1.</_>
        <_>
          10 7 1 5 2.</_>
        <_>
          11 12 1 5 2.</_></rects>
      <tilted>0</tilted></_>
    <_>
      <rects>
        <_>
          10 8 8 18 -1.</_>
        <_>
          10 17 8 9 2.</_></rects>
      <tilted>0</tilted></_>
    <_>
      <rects>
        <_>
          10 10 7 16 -1.</_>
        <_>
          10 18 7 8 2.</_></rects>
      <tilted>0</tilted></_>
    <_>
      <rects>
        <_>
          10 14 12 1 -1.</_>
        <_>
          16 14 6 1 2.</_></rects>
      <tilted>0</tilted></_>
    <_>
      <rects>
        <_>
          10 15 12 1 -1.</_>
        <_>
          16 15 6 1 2.</_></rects>
      <tilted>0</tilted></_>
    <_>
      <rects>
        <_>
          10 19 12 6 -1.</_>
        <_>
          14 19 4 6 3.</_></rects>
      <tilted>0</tilted></_>
    <_>
      <rects>
        <_>
          11 1 4 6 -1.</_>
        <_>
          11 3 4 2 3.</_></rects>
      <tilted>0</tilted></_>
    <_>
      <rects>
        <_>
          11 1 6 12 -1.</_>
        <_>
          11 5 6 4 3.</_></rects>
      <tilted>0</tilted></_>
    <_>
      <rects>
        <_>
          11 5 2 3 -1.</_>
        <_>
          11 6 2 1 3.</_></rects>
      <tilted>0</tilted></_>
    <_>
      <rects>
        <_>
          12 1 10 4 -1.</_>
        <_>
          12 1 5 2 2.</_>
        <_>
          17 3 5 2 2.</_></rects>
      <tilted>0</tilted></_>
    <_>
      <rects>
        <_>
          12 6 2 3 -1.</_>
        <_>
          12 7 2 1 3.</_></rects>
      <tilted>0</tilted></_>
    <_>
      <rects>
        <_>
          12 7 2 3 -1.</_>
        <_>
          12 8 2 1 3.</_></rects>
      <tilted>0</tilted></_>
    <_>
      <rects>
        <_>
          12 10 6 16 -1.</_>
        <_>
          12 18 6 8 2.</_></rects>
      <tilted>0</tilted></_>
    <_>
      <rects>
        <_>
          12 11 8 6 -1.</_>
        <_>
          16 11 4 6 2.</_></rects>
      <tilted>0</tilted></_>
    <_>
      <rects>
        <_>
          12 11 10 14 -1.</_>
        <_>
          12 11 5 7 2.</_>
        <_>
          17 18 5 7 2.</_></rects>
      <tilted>0</tilted></_>
    <_>
      <rects>
        <_>
          12 19 9 6 -1.</_>
        <_>
          15 19 3 6 3.</_></rects>
      <tilted>0</tilted></_>
    <_>
      <rects>
        <_>
          13 4 9 18 -1.</_>
        <_>
          16 4 3 18 3.</_></rects>
      <tilted>0</tilted></_>
    <_>
      <rects>
        <_>
          13 6 4 20 -1.</_>
        <_>
          13 16 4 10 2.</_></rects>
      <tilted>0</tilted></_>
    <_>
      <rects>
        <_>
          13 7 3 3 -1.</_>
        <_>
          13 8 3 1 3.</_></rects>
      <tilted>0</tilted></_>
    <_>
      <rects>
        <_>
          13 11 6 6 -1.</_>
        <_>
          16 11 3 6 2.</_></rects>
      <tilted>0</tilted></_>
    <_>
      <rects>
        <_>
          13 11 8 1 -1.</_>
        <_>
          17 11 4 1 2.</_></rects>
      <tilted>0</tilted></_>
    <_>
      <rects>
        <_>
          14 0 2 12 -1.</_>
        <_>
          14 4 2 4 3.</_></rects>
      <tilted>0</tilted></_>
    <_>
      <rects>
        <_>
          14 2 2 2 -1.</_>
        <_>
          15 2 1 2 2.</_></rects>
      <tilted>0</tilted></_>
    <_>
      <rects>
        <_>
          14 4 6 3 -1.</_>
        <_>
          16 4 2 3 3.</_></rects>
      <tilted>0</tilted></_>
    <_>
      <rects>
        <_>
          14 5 6 2 -1.</_>
        <_>
          16 5 2 2 3.</_></rects>
      <tilted>0</tilted></_>
    <_>
      <rects>
        <_>
          16 0 5 6 -1.</_>
        <_>
          16 2 5 2 3.</_></rects>
      <tilted>0</tilted></_>
    <_>
      <rects>
        <_>
          16 0 6 4 -1.</_>
        <_>
          16 2 6 2 2.</_></rects>
      <tilted>0</tilted></_>
    <_>
      <rects>
        <_>
          17 2 5 4 -1.</_>
        <_>
          17 4 5 2 2.</_></rects>
      <tilted>0</tilted></_>
    <_>
      <rects>
        <_>
          17 4 3 2 -1.</_>
        <_>
          18 4 1 2 3.</_></rects>
      <tilted>0</tilted></_>
    <_>
      <rects>
        <_>
          18 5 3 1 -1.</_>
        <_>
          19 5 1 1 3.</_></rects>
      <tilted>0</tilted></_>
    <_>
      <rects>
        <_>
          19 0 3 12 -1.</_>
        <_>
          19 4 3 4 3.</_></rects>
      <tilted>0</tilted></_>
    <_>
      <rects>
        <_>
          19 3 3 2 -1.</_>
        <_>
          20 3 1 2 3.</_></rects>
      <tilted>0</tilted></_>
    <_>
      <rects>
        <_>
          19 3 2 4 -1.</_>
        <_>
          19 3 1 2 2.</_>
        <_>
          20 5 1 2 2.</_></rects>
      <tilted>0</tilted></_>
    <_>
      <rects>
        <_>
          19 6 3 1 -1.</_>
        <_>
          20 6 1 1 3.</_></rects>
      <tilted>0</tilted></_>
    <_>
      <rects>
        <_>
          19 6 3 2 -1.</_>
        <_>
          20 6 1 2 3.</_></rects>
      <tilted>0</tilted></_>
    <_>
      <rects>
        <_>
          20 3 2 6 -1.</_>
        <_>
          20 3 1 3 2.</_>
        <_>
          21 6 1 3 2.</_></rects>
      <tilted>0</tilted></_>
    <_>
      <rects>
        <_>
          20 3 2 16 -1.</_>
        <_>
          20 11 2 8 2.</_></rects>
      <tilted>0</tilted></_>
    <_>
      <rects>
        <_>
          20 4 2 12 -1.</_>
        <_>
          20 10 2 6 2.</_></rects>
      <tilted>0</tilted></_></features></cascade>
</opencv_storage>
